svm_type c_svc
kernel_type rbf
gamma 0.1
nr_class 2
total_sv 3
rho -0.5
label 1 -1
nr_sv 2 1
SV
0.5 1:186.8771 2:1.739707345251302E-5 3:0.0 4:0.0 5:0.0 6:0.8252867871585375 7:90.46 
0.5 1:102.3104 2:9.230153887176801E-6 3:0.0 4:0.0 5:0.0 6:0.9332711152589828 7:99.96000000000001 
-1.0 1:352.1 2:0.010676156583629894 3:0.0 4:0.0 5:0.010676156583629894 6:0.011862396204033215 7:100.0 
